svm_type c_svc
kernel_type rbf
gamma 8
nr_class 5
total_sv 268
rho -1.04145 10.6108 2.67685 -7.49947 2.82725 0.236706 1.53006 -6.27735 -10.123 -16.6947
label 1 2 3 4 5
nr_sv 67 24 65 48 64
SV
2.122061106710865 41.83473101338287 0 68.31797941289689 1:0.142857 2:0.335875 
2.35264781782235 0 0 0 1:0.0392857 2:0.388395 
0 72.69798248648067 0 0 1:0.0488095 2:0.26726 
19.15936154296106 2048 0 2048 1:0.394048 2:0.338416 
0 2048 0 2048 1:0.464286 2:0.340957 
0 2048 0 2048 1:0.540476 2:0.306226 
0 2048 0 2048 1:0.519048 2:0.296908 
0 2048 0 2048 1:0.49881 2:0.235917 
0 2048 0 2048 1:0.502381 2:0.188479 
0 2048 0 2048 1:0.470238 2:0.152901 
0 2048 780.6233223274561 2048 1:0.403571 2:0.131724 
0 2048 0 2048 1:0.510714 2:0.147819 
0 2048 0 2048 1:0.505952 2:0.184244 
0 2048 1134.249223788906 0 1:0.517857 2:0.102922 
0 2048 2048 44.25263311844729 1:0.408333 2:0.0715798 
0 317.4674456480698 0 0 1:0.592857 2:0.434985 
0 2048 0 128.5014142487362 1:0.575 2:0.436679 
0 0 32.53532517524725 0 1:0.608333 2:0.426514 
74.35459391087707 0 0 0 1:0.620238 2:0.579839 
0 0 206.979558158045 0 1:0.639286 2:0.460398 
0 2048 0 0 1:0.579762 2:0.423973 
0 0 13.9014721906476 0 1:0.49881 2:-0.463787 
0 0 89.62504519553582 46.64570153594118 1:0.540476 2:-0.401101 
0 1811.030643886515 0 0 1:0.586905 2:-0.433291 
0 0 465.2543538331263 0 1:0.729762 2:-0.134265 
0 29.94892680592664 0 0 1:0.805952 2:-0.294367 
0 0 2048 2048 1:0.845238 2:-0.0537908 
0 0 1534.271300895087 2048 1:0.8 2:-0.0758153 
0 0 0 1540.391074146555 1:0.80119 2:-0.0868276 
0 0 2048 2048 1:0.836905 2:-0.0232952 
0 0 2048 2048 1:0.830952 2:-0.0173655 
0 0 2048 2048 1:0.746429 2:-0.0334604 
0 0 2048 2048 1:0.705952 2:-0.0139771 
0 0 2048 2048 1:0.702381 2:0.0258365 
0 0 2048 2048 1:0.652381 2:-0.0487082 
0 0 2048 0 1:0.636905 2:-0.0165184 
0 1182.980297157855 0 2048 1:0.671429 2:0.165608 
0 0 2048 2048 1:0.677381 2:0.143583 
0 0 2048 2048 1:0.70119 2:0.127488 
0 0 2048 2048 1:0.652381 2:0.0292249 
0 0 2048 0 1:0.622619 2:-0.0275307 
0 0 2048 1597.591495821558 1:0.627381 2:-0.0368488 
0 0 2048 2048 1:0.588095 2:-0.0427785 
0 0 2048 0 1:0.620238 2:-0.0266836 
0 2048 2048 0 1:0.582143 2:0.0376959 
0 488.1332113222172 2048 0 1:0.604762 2:0.0258365 
0 0 2048 2048 1:0.703571 2:0.00465904 
0 0 2048 2048 1:0.719048 2:0.0834392 
0 0 2048 2048 1:0.719048 2:0.0741211 
0 0 2048 0 1:0.84881 2:0.0698856 
0 42.7370618603282 2048 0 1:0.85 2:0.0851334 
0 0 2048 0 1:0.827381 2:0.0775095 
0 0 2048 1412.800893597395 1:0.808333 2:0.0758153 
0 2048 1391.357251521784 2048 1:0.641667 2:0.115629 
0 2048 2048 2048 1:0.661905 2:0.1241 
0 2048 2048 0 1:0.555952 2:0.0792037 
0 2048 0 2048 1:0.635714 2:0.117323 
0 0 2048 2048 1:0.705952 2:0.116476 
0 2048 0 2048 1:0.609524 2:0.124947 
0 2048 0 2048 1:0.617857 2:0.117323 
0 2048 0 2048 1:0.569048 2:0.20288 
0 2048 2048 0 1:0.660714 2:0.218975 
0 2048 2048 1311.248443559523 1:0.652381 2:0.234223 
0 2048 2048 2048 1:0.65 2:0.239305 
0 0 2048 0 1:0.670238 2:0.2554 
0 1622.859337960619 2048 0 1:0.654762 2:0.253706 
0 2048 1462.624449234935 2048 1:0.621429 2:0.235917 
-13.26792012557003 0 1.184256610762151 0 1:0.284524 2:0.379924 
-0 2048 0 0 1:0.395238 2:0.463787 
-0 2048 0 0 1:0.480952 2:0.539178 
-0 1966.338211108494 0 0 1:0.486905 2:0.551038 
-65.4938755376667 0 1.794633006764226 0 1:0.560714 2:0.549343 
-0 2048 0 0 1:0.478571 2:0.530707 
-0 2048 0.7034021844063728 249.7123781251715 1:0.39881 2:0.40449 
-0 1258.215682167781 0 0 1:0.390476 2:0.450233 
-0 1143.542361975413 0 0 1:0.415476 2:0.586616 
-0 0 0.3765204231326377 0 1:0.285714 2:1 
-0 0 0.6245354815383563 0 1:0.615476 2:0.94155 
-0 1096.191322556877 0 0 1:0.45 2:0.623041 
-0 351.6960126225175 0 0 1:0.575 2:0.641677 
-0 1602.901501853756 0 0 1:0.567857 2:0.710292 
-0 1.861081165075229 0 0 1:0.452381 2:0.651842 
-0 2048 0 0 1:0.435714 2:0.643371 
-0 2048 0 0 1:0.469048 2:0.682338 
-0 2048 0 0 1:0.470238 2:0.69928 
-0 2048 0 0 1:0.454762 2:0.669632 
-0 420.2936262521863 0 0 1:0.47381 2:0.746717 
-0 9.186048741891225 0 0 1:0.495238 2:0.730623 
-17.99779264053256 2048 0 0 1:0.638095 2:0.712834 
-0 2048 0 0 1:0.477381 2:0.698433 
-1.229076074602066 0 0.9144749439480269 3.694304088913619 1:-0.0297619 2:0.85684 
-0 -0 82.67174211253023 0 1:0.194048 2:0.0334604 
-15.33250398364721 -0 0 0 1:0.189286 2:-0.0368488 
-0 -0 0 1964.193105797962 1:0.360714 2:-0.112241 
-0 -0 0 2048 1:0.358333 2:-0.163066 
-0 -0 0 2048 1:0.4 2:-0.152054 
-172.8334994175175 -0 0 59.86458571470831 1:0.453571 2:-0.484964 
-0 -0 5.360971247867993 0 1:0.677381 2:-0.467175 
-1648.421972616219 -0 0 0 1:0.610714 2:-0.434138 
-0 -0 0 1306.754668587813 1:0.338095 2:-0.18255 
-0 -0 0 2048 1:0.37619 2:-0.104617 
-0 -0 0 2048 1:0.458333 2:-0.129183 
-483.2343803748635 -0 537.2205930440208 2048 1:0.483333 2:-0.0808979 
-0 -0 0 2048 1:0.472619 2:-0.081745 
-0 -0 0 2048 1:0.44881 2:-0.0851334 
-2048 -0 2048 0 1:0.463095 2:0.0724269 
-1514.187815311678 -0 2048 1311.66896723413 1:0.47381 2:0.0698856 
-564.2140129106864 -0 2048 2048 1:0.458333 2:0.0546379 
-600.9333455071148 -0 0 0 1:0.557143 2:0.0834392 
-2048 -0 2048 2048 1:0.702381 2:0.180856 
-2048 -0 2048 2048 1:0.684524 2:0.173232 
-2048 -0 2048 2048 1:0.667857 2:0.15036 
-2048 -0 2048 2048 1:0.640476 2:0.110546 
-2048 -0 0 184.9274630915014 1:0.57619 2:0.10377 
-2048 -0 0 2048 1:0.580952 2:0.128335 
-2048 -0 0 0 1:0.572619 2:0.110546 
-2048 -0 482.8125324046401 2048 1:0.610714 2:0.098687 
-2048 -0 2048 2048 1:0.617857 2:0.101228 
-2048 -0 1536.87247337473 2048 1:0.604762 2:0.234223 
-2048 -0 2048 0 1:0.620238 2:0.30792 
-2048 -0 0 363.2192757957959 1:0.596429 2:0.323168 
-16.2766128146474 -0 0 2048 1:0.578571 2:0.296908 
-2048 -0 0 2048 1:0.586905 2:0.306226 
-0 -0 0 1562.012578443866 1:0.55 2:0.353664 
-2048 -0 0 0 1:0.591667 2:0.390089 
-2048 -0 0 0 1:0.577381 2:0.384159 
-17.3806372420971 -0 0 0 1:-0.182143 2:0.180856 
-0 -102.2016854879783 0 0 1:0.208333 2:0.185938 
-2048 -0 0 1364.815875377502 1:0.389286 2:0.191021 
-1996.434014966128 -0 0 2048 1:0.367857 2:0.205421 
-445.5503136340258 -0 0 2048 1:0.57619 2:0.224058 
-2048 -0 0 166.5037676565564 1:0.514286 2:0.165608 
-2048 -0 0 2048 1:0.509524 2:0.211351 
-0 -0 0 2048 1:0.532143 2:0.20288 
-2048 -0 0 2048 1:0.521429 2:0.192715 
-0 -0 0 2048 1:0.569048 2:0.186785 
-0 -0 0 2048 1:0.565476 2:0.185091 
-1877.503179721967 -0 0 2048 1:0.528571 2:0.197798 
-2048 -0 0 2048 1:0.521429 2:0.174926 
-2048 -0 0 2048 1:0.633333 2:0.145277 
-2048 -0 0 2048 1:0.475 2:0.328251 
-2048 -0 0 2048 1:0.440476 2:0.406184 
-206.0767907573702 -1806.621550794805 0 0 1:0.460714 2:0.45701 
-0 -2048 0 0 1:0.416667 2:0.457857 
-0 -2048 0 0 1:0.407143 2:0.443456 
-0 -2048 0 0 1:0.415476 2:0.47141 
-0 -2048 0 0 1:0.444048 2:0.621347 
-0 -2048 0 0 1:0.452381 2:0.617958 
-0 -2048 0 0 1:0.453571 2:0.593393 
-0 -2048 0 0 1:0.453571 2:0.616264 
-0 -2048 0 0 1:0.447619 2:0.657772 
-0 -2048 0 0 1:0.521429 2:0.734858 
-0 -2048 0 0 1:0.577381 2:0.680644 
-147.3105588834422 -1845.402612161196 0 0 1:0.642857 2:0.67895 
-0 -2048 0 0 1:0.471429 2:0.681491 
-0 -2048 0 0 1:0.466667 2:0.723846 
-0 -0 -1468.597634322426 1250.178964567056 1:0.454762 2:0.021601 
-2048 -0 -561.7194004919332 0 1:0.45 2:0.0724269 
-884.8192401817898 -0 -2048 0 1:0.458333 2:0.0597205 
-2048 -0 -2048 0 1:0.452381 2:0.0724269 
-2048 -0 -2048 0 1:0.62619 2:0.279119 
-2048 -0 -0 0 1:0.654762 2:0.256247 
-0 -2.407794530984492 -0 0 1:0.691667 2:0.370606 
-972.8883280760449 -0 -356.9656424767051 0 1:0.65119 2:0.314697 
-0 -0.234818506952671 -0 0 1:0.261905 2:-1 
-0 -0.4486607628967962 -3.317397064633504 0 1:0.115476 2:-0.950021 
-24.45003608050994 -0.5842132840966556 -20.64533404515604 0 1:0.422619 2:-0.628971 
-508.6407848082178 -0 -0 2048 1:0.559524 2:-0.168996 
-2048 -0 -1084.420365260367 2048 1:0.711905 2:0.138501 
-2048 -0 -2048 2048 1:0.620238 2:0.166455 
-2048 -0 -2048 2048 1:0.694048 2:0.163066 
-2048 -0 -2048 2048 1:0.677381 2:0.188479 
-2048 -0 -0 0 1:0.694048 2:0.21474 
-2048 -0 -0 0 1:0.7 2:0.204574 
-2048 -0 -2048 2048 1:0.613095 2:0.211351 
-2048 -0 -0 0 1:0.613095 2:0.0105887 
-2048 -0 -0 458.8138388202659 1:0.633333 2:0.038543 
-2048 -0 -0 0 1:0.625 2:0.0148242 
-2048 -0 -0 0 1:0.616667 2:-0.00296485 
-2048 -0 -0 2048 1:0.652381 2:0.0605676 
-2048 -0 -1359.185323889069 2048 1:0.638095 2:0.0690385 
-2048 -0 -0 2048 1:0.669048 2:0.0478611 
-2048 -0 -0 2048 1:0.660714 2:0.0444727 
-2048 -0 -1885.558714867343 2048 1:0.608333 2:0.0487082 
-0 -0 -0.5284997661585651 0 1:0.377381 2:-0.0283778 
-127.4599887835797 -1.524366537427406 -0 0 1:0.282143 2:0.100381 
-1304.144294861595 -0 -0 0 1:0.840476 2:0.0842863 
-2048 -0 -0 0 1:0.82619 2:0.0673443 
-2048 -0 -0 0 1:0.838095 2:0.0800508 
-2048 -0 -0 1573.406209769546 1:0.827381 2:0.063956 
-1556.656348895207 -0 -0 0 1:0.842857 2:0.047014 
-2048 -0 -0 2048 1:0.609524 2:-0.081745 
-2048 -0 -0 2048 1:0.733333 2:-0.0783566 
-1398.451303211073 -0 -0 0 1:0.67619 2:-0.0199068 
-2048 -0 -0 2048 1:0.679762 2:-0.00465904 
-2048 -0 -0 2048 1:0.694048 2:0.00635324 
-2048 -0 -0 2048 1:0.777381 2:-0.00465904 
-0 -0 -0 2048 1:0.719048 2:-0.0436256 
-2006.166181584198 -0 -0 0 1:0.704762 2:-0.0622618 
-2048 -0 -0 2048 1:0.728571 2:-0.0393901 
-2048 -0 -0 2048 1:0.771429 2:0.0173655 
-2048 -0 -0 2048 1:0.770238 2:-0.000423549 
-375.7447958385648 -0.3979690281937504 -0 0 1:0.908333 2:-0.063956 
-2048 -0 -0 1380.060838109312 1:0.895238 2:-0.055485 
-386.8645755223132 -0 -2048 -0 1:0.509524 2:0.340957 
-2048 -0 -2048 -22.97974812870173 1:0.511905 2:0.352817 
-2048 -0 -2048 -45.54098588853596 1:0.571429 2:0.28759 
-827.0842066078976 -0 -2048 -0 1:0.505952 2:0.22914 
-0 -0 -1873.624477530042 -0 1:0.54881 2:0.252859 
-601.5991557551796 -0 -2048 -0 1:0.589286 2:0.231681 
-2048 -0 -2048 -0 1:0.619048 2:0.225752 
-2048 -0 -2048 -0 1:0.57381 2:0.198645 
-2048 -0 -2048 -2048 1:0.638095 2:0.201186 
-2048 -0 -2048 -0 1:0.620238 2:0.190174 
-2048 -0 -2048 -2048 1:0.669048 2:0.195256 
-2048 -0 -2048 -0 1:0.627381 2:0.20881 
-2048 -0 -2048 -1628.46816883119 1:0.659524 2:0.161372 
-2048 -0 -2048 -0 1:0.402381 2:0.178314 
-2048 -0 -952.6826317928478 -2048 1:0.702381 2:0.0842863 
-2048 -0 -454.2126757315425 -2048 1:0.742857 2:0.0859805 
-2048 -0 -0 -2048 1:0.716667 2:0.0808979 
-2048 -0 -0 -2048 1:0.725 2:0.055485 
-2048 -0 -0 -176.5089634852216 1:0.752381 2:0.081745 
-2048 -0 -0 -2048 1:0.732143 2:0.0698856 
-2048 -0 -0 -2048 1:0.734524 2:0.0419314 
-2048 -0 -0 -2048 1:0.730952 2:-0.00974163 
-2048 -0 -0 -2048 1:0.740476 2:-0.0478611 
-2048 -0 -0 -2048 1:0.759524 2:-0.0436256 
-2048 -0 -0 -2048 1:0.74881 2:-0.0419314 
-1383.068920083383 -0 -0 -2048 1:0.745238 2:-0.021601 
-2048 -0 -0 -0 1:0.858333 2:-0.0546379 
-2048 -0 -0 -2048 1:0.878571 2:-0.0478611 
-0 -0 -1843.301282334574 -0 1:0.513095 2:-0.141889 
-0 -0 -2048 -0 1:0.372619 2:-0.141042 
-0 -0 -2048 -102.4801683980037 1:0.345238 2:-0.192715 
-0 -0 -2048 -0 1:0.366667 2:-0.168996 
-0 -0 -616.2048361630353 -0 1:0.416667 2:-0.179161 
-0 -0 -2048 -0 1:0.409524 2:-0.0995341 
-0 -0 -2048 -0 1:0.422619 2:-0.0504024 
-0 -0 -495.8669184675847 -0 1:0.461905 2:-0.0453198 
-0 -0 -2048 -0 1:0.42381 2:-0.0597205 
-0 -0 -2048 -0 1:0.415476 2:-0.0741211 
-170.8270752527511 -0 -2048 -0 1:0.482143 2:-0.0258365 
-2048 -0 -0 -2048 1:0.589286 2:-0.0495553 
-378.2343783756436 -0 -0 -2048 1:0.592857 2:-0.0834392 
-0 -0 -0 -1896.383362011841 1:0.566667 2:-0.13003 
-2048 -0 -2048 -0 1:0.494048 2:0.197798 
-1529.517108562373 -0 -0 -0 1:0.397619 2:0.253706 
-77.03421369408959 -0 -0 -0 1:0.444048 2:0.327404 
-693.3437993893496 -0 -0 -0 1:0.410714 2:0.352817 
-2048 -0 -0 -0 1:0.42619 2:0.342651 
-68.9636251163914 -0 -2048 -0 1:0.466667 2:0.389242 
-0 -247.6674283586882 -0 -0 1:0.407143 2:0.383312 
-0 -0 -2012.063027153315 -0 1:0.372619 2:0.251165 
-2048 -0 -0 -88.45688589558006 1:0.772619 2:-0.0504024 
-2048 -0 -0 -2048 1:0.633333 2:-0.0664972 
-2048 -0 -2048 -2048 1:0.569048 2:0.0724269 
-2048 -0 -2048 -0 1:0.602381 2:0.131724 
-2048 -0 -2048 -2048 1:0.597619 2:0.122406 
-2048 -0 -2048 -0 1:0.575 2:0.122406 
-2048 -0 -2048 -2048 1:0.635714 2:0.126641 
-2048 -0 -2048 -656.4960984190341 1:0.49881 2:0.111393 
-2048 -0 -2048 -0 1:0.488095 2:0.158831 
-20.78454520687177 -5.739253855396934 -18.39880928472854 -13.73620634458401 1:-0.072619 2:0.604405 
-2.114264376723987 -0 -4.497605305585968 -11.53316698236896 1:-0.430952 2:0.806014 
-3.420867270013263 -0 -3.798925897385534 -4.349341960753741 1:-0.716667 2:0.645066 
-2.263448184833065 -0 -3.238640742744013 -5.861705186409542 1:-0.932143 2:0.473105 
-4.629452043225998 -0 -6.070457296441424 -9.665049733952001 1:-1 2:0.557814 
